<?xml version="1.0"?>
<opencv_storage>
<cascade>
  <stageType>BOOST</stageType>
  <featureType>LBP</featureType>
  <height>48</height>
  <width>82</width>
  <stageParams>
    <boostType>GAB</boostType>
    <minHitRate>9.9900001287460327e-01</minHitRate>
    <maxFalseAlarm>5.0000000000000000e-01</maxFalseAlarm>
    <weightTrimRate>9.4999999999999996e-01</weightTrimRate>
    <maxDepth>1</maxDepth>
    <maxWeakCount>100</maxWeakCount></stageParams>
  <featureParams>
    <maxCatCount>256</maxCatCount>
    <featSize>1</featSize></featureParams>
  <stageNum>11</stageNum>
  <stages>
    <!-- stage 0 -->
    <_>
      <maxWeakCount>4</maxWeakCount>
      <stageThreshold>-2.1472585201263428e+00</stageThreshold>
      <weakClassifiers>
        <_>
          <internalNodes>
            0 -1 18 -67108865 -1 -547880961 -1537 -1049601 -67371077
            -1048577 2147483391</internalNodes>
          <leafValues>
            -9.7652387619018555e-01 8.0029475688934326e-01</leafValues></_>
        <_>
          <internalNodes>
            0 -1 17 -2049 -2141449 -144713729 -33598209 -68428801
            -3456833 -2049 2147439103</internalNodes>
          <leafValues>
            -9.5052766799926758e-01 5.8050578832626343e-01</leafValues></_>
        <_>
          <internalNodes>
            0 -1 57 -134217729 -183333 -778440225 -6302753 -73663745
            -73555255 -272630785 2147482591</internalNodes>
          <leafValues>
            -8.2760715484619141e-01 7.0491248369216919e-01</leafValues></_>
        <_>
          <internalNodes>
            0 -1 43 -1078403652 -1074004483 -108143623 -2097155 -65793
            -4195345 -2162689 -336899</internalNodes>
          <leafValues>
            -9.3254548311233521e-01 6.0740029811859131e-01</leafValues></_></weakClassifiers></_>
    <!-- stage 1 -->
    <_>
      <maxWeakCount>3</maxWeakCount>
      <stageThreshold>-1.3596814870834351e+00</stageThreshold>
      <weakClassifiers>
        <_>
          <internalNodes>
            0 -1 59 -1 -536871949 -448532129 -9249 -74449953 -609507089
            -207618049 2147483647</internalNodes>
          <leafValues>
            -9.0466529130935669e-01 7.1590906381607056e-01</leafValues></_>
        <_>
          <internalNodes>
            0 -1 44 -1 -2108417 -212599301 -33 -1145308241 -1078206533
            -1146355713 1002175487</internalNodes>
          <leafValues>
            -9.4628769159317017e-01 6.0402154922485352e-01</leafValues></_>
        <_>
          <internalNodes>
            0 -1 6 -1 -277302 1929248223 1602224127 -72615681 -308020
            2144075775 2139053567</internalNodes>
          <leafValues>
            -8.9897471666336060e-01 4.9127149581909180e-01</leafValues></_></weakClassifiers></_>
    <!-- stage 2 -->
    <_>
      <maxWeakCount>5</maxWeakCount>
      <stageThreshold>-1.3692532777786255e+00</stageThreshold>
      <weakClassifiers>
        <_>
          <internalNodes>
            0 -1 33 -1147642371 -2140675 -682106881 -1 -1147469825 -3141
            -3146753 -1</internalNodes>
          <leafValues>
            -8.7363654375076294e-01 6.1785316467285156e-01</leafValues></_>
        <_>
          <internalNodes>
            0 -1 58 -262145 -33685793 -74064385 -10512419 -205784065
            -5002017 -544478209 2143284223</internalNodes>
          <leafValues>
            -7.7407038211822510e-01 6.5694534778594971e-01</leafValues></_>
        <_>
          <internalNodes>
            0 -1 48 -1617404420 -515 -1075970049 -35654187 -90505217
            -88102757 -1414081537 -9475</internalNodes>
          <leafValues>
            -8.3126217126846313e-01 5.0773245096206665e-01</leafValues></_>
        <_>
          <internalNodes>
            0 -1 45 487677435 -697861 -1130364937 -1166542345 2042167039
            -272645 1891949559 -230403</internalNodes>
          <leafValues>
            -7.2926247119903564e-01 5.6814551353454590e-01</leafValues></_>
        <_>
          <internalNodes>
            0 -1 15 -1618469640 1034649068 -1406255365 -1080058417
            -76071682 -318064165 -63014145 -557843713</internalNodes>
          <leafValues>
            -7.1078765392303467e-01 5.4157030582427979e-01</leafValues></_></weakClassifiers></_>
    <!-- stage 3 -->
    <_>
      <maxWeakCount>5</maxWeakCount>
      <stageThreshold>-1.5777550935745239e+00</stageThreshold>
      <weakClassifiers>
        <_>
          <internalNodes>
            0 -1 55 -136316929 -538971749 1966334455 2147472383 -3150849
            2091898891 -3146753 2146958335</internalNodes>
          <leafValues>
            -9.0522801876068115e-01 4.8747968673706055e-01</leafValues></_>
        <_>
          <internalNodes>
            0 -1 29 -786977 -35661347 -2106369 -35660289 -4982785
            -6579729 -6029313 -4467201</internalNodes>
          <leafValues>
            -6.5329062938690186e-01 7.5443959236145020e-01</leafValues></_>
        <_>
          <internalNodes>
            0 -1 13 2147483583 519830011 2145385983 1602222079 -13763073
            -3159897 1606409215 2113928959</internalNodes>
          <leafValues>
            -8.7576919794082642e-01 4.2735901474952698e-01</leafValues></_>
        <_>
          <internalNodes>
            0 -1 11 -1123128 -5247064 -703531951 -570582531 -68235570
            -2106917 -1133973507 -51597440</internalNodes>
          <leafValues>
            -7.7207219600677490e-01 4.7156447172164917e-01</leafValues></_>
        <_>
          <internalNodes>
            0 -1 47 -1083154948 -2902067 1601168317 -62151 -74007809
            -1145077059 -1148277761 -4286019</internalNodes>
          <leafValues>
            -8.9668136835098267e-01 3.8496819138526917e-01</leafValues></_></weakClassifiers></_>
    <!-- stage 4 -->
    <_>
      <maxWeakCount>5</maxWeakCount>
      <stageThreshold>-1.5170470476150513e+00</stageThreshold>
      <weakClassifiers>
        <_>
          <internalNodes>
            0 -1 64 -35653633 -2370081 -653140481 -513 -16647169
            -73563941 2040265727 2139095007</internalNodes>
          <leafValues>
            -8.6563193798065186e-01 4.3594771623611450e-01</leafValues></_>
        <_>
          <internalNodes>
            0 -1 32 -16842755 -1188643 -1684015265 -36715011 -3481857
            -2167843 -1074594817 -268763651</internalNodes>
          <leafValues>
            -7.9556989669799805e-01 4.3178552389144897e-01</leafValues></_>
        <_>
          <internalNodes>
            0 -1 22 1508957661 -570698535 -745147393 -2099713 714276795
            446382842 -102041857 -5893</internalNodes>
          <leafValues>
            -6.7644459009170532e-01 5.0837707519531250e-01</leafValues></_>
        <_>
          <internalNodes>
            0 -1 20 -4877 -660496 -216716305 -2623516 2058308842
            1539267069 -70517793 2004318023</internalNodes>
          <leafValues>
            -7.9551452398300171e-01 4.3083482980728149e-01</leafValues></_>
        <_>
          <internalNodes>
            0 -1 41 497639133 -282635712 -1293095951 -273549995
            -659760562 -113667925 -1668612129 -307693107</internalNodes>
          <leafValues>
            -6.8904489278793335e-01 4.3129223585128784e-01</leafValues></_></weakClassifiers></_>
    <!-- stage 5 -->
    <_>
      <maxWeakCount>7</maxWeakCount>
      <stageThreshold>-1.6187460422515869e+00</stageThreshold>
      <weakClassifiers>
        <_>
          <internalNodes>
            0 -1 53 -33555489 -536880769 -1048389185 1608504031
            -101989394 -796188542 -611324449 2004350975</internalNodes>
          <leafValues>
            -8.7698316574096680e-01 2.9455801844596863e-01</leafValues></_>
        <_>
          <internalNodes>
            0 -1 28 -604504097 -2100233 -239868941 1610569149
            -1315176459 -726561 958068735 -1077994241</internalNodes>
          <leafValues>
            -7.2541213035583496e-01 4.1460490226745605e-01</leafValues></_>
        <_>
          <internalNodes>
            0 -1 7 -2111746 -197206712 -183844724 -656584115 -1362342692
            -83101445 -1686839 -41377</internalNodes>
          <leafValues>
            -6.5974366664886475e-01 4.3050199747085571e-01</leafValues></_>
        <_>
          <internalNodes>
            0 -1 39 -585050920 -37631768 -347866625 -537008227 -81209458
            -879976311 -28906545 -1270181596</internalNodes>
          <leafValues>
            -7.0245659351348877e-01 4.4860821962356567e-01</leafValues></_>
        <_>
          <internalNodes>
            0 -1 63 -144707081 -4083367 1368504287 2139050455
            -1157431873 -75881813 1805888507 2138013631</internalNodes>
          <leafValues>
            -5.9786194562911987e-01 5.4158824682235718e-01</leafValues></_>
        <_>
          <internalNodes>
            0 -1 51 -257950993 -582004473 -1055829931 -581479097
            1905455838 -1953869335 -431175714 544208895</internalNodes>
          <leafValues>
            -7.6106500625610352e-01 4.1529282927513123e-01</leafValues></_>
        <_>
          <internalNodes>
            0 -1 40 294722811 -10276805 352518517 -1100144297
            -1851223362 -1181011793 -1142150153 -4523011</internalNodes>
          <leafValues>
            -6.1626100540161133e-01 4.3817299604415894e-01</leafValues></_></weakClassifiers></_>
    <!-- stage 6 -->
    <_>
      <maxWeakCount>7</maxWeakCount>
      <stageThreshold>-1.7796704769134521e+00</stageThreshold>
      <weakClassifiers>
        <_>
          <internalNodes>
            0 -1 34 -201598497 -181415585 -921305153 -544222769
            -573833281 -73695081 -6684689 -4465153</internalNodes>
          <leafValues>
            -6.9307887554168701e-01 4.3013009428977966e-01</leafValues></_>
        <_>
          <internalNodes>
            0 -1 54 -41945089 -539241512 -654257769 1574171101 -89462021
            -126119877 -309339201 2139085823</internalNodes>
          <leafValues>
            -7.8606772422790527e-01 3.9181891083717346e-01</leafValues></_>
        <_>
          <internalNodes>
            0 -1 10 -18878740 -790889785 -531232570 1740849287
            2122859740 -28359533 -589669813 -34644641</internalNodes>
          <leafValues>
            -6.5553236007690430e-01 4.5183321833610535e-01</leafValues></_>
        <_>
          <internalNodes>
            0 -1 36 -13607720 499114744 -107259663 528186901 2072271374
            -550805590 -1683014665 -32783</internalNodes>
          <leafValues>
            -7.1320748329162598e-01 4.1570982336997986e-01</leafValues></_>
        <_>
          <internalNodes>
            0 -1 37 -1087350568 -808749120 -1827155465 -582108911
            -1461011622 -78970834 -305487117 -1311749</internalNodes>
          <leafValues>
            -8.0791735649108887e-01 3.6042526364326477e-01</leafValues></_>
        <_>
          <internalNodes>
            0 -1 19 -802947456 -817438718 -536866814 -457027578
            -1056810548 -129302386 889602103 -456163769</internalNodes>
          <leafValues>
            -6.7392814159393311e-01 3.6542871594429016e-01</leafValues></_>
        <_>
          <internalNodes>
            0 -1 49 -354684042 -515384941 -787408685 1524079069
            -712247173 1767493769 189192939 31455471</internalNodes>
          <leafValues>
            -7.6500368118286133e-01 3.4383612871170044e-01</leafValues></_></weakClassifiers></_>
    <!-- stage 7 -->
    <_>
      <maxWeakCount>8</maxWeakCount>
      <stageThreshold>-1.6881242990493774e+00</stageThreshold>
      <weakClassifiers>
        <_>
          <internalNodes>
            0 -1 4 -2769409 -575037301 -674379825 -134368993 -1617699877
            -276067041 -208404481 -134744577</internalNodes>
          <leafValues>
            -7.6168650388717651e-01 2.3518402874469757e-01</leafValues></_>
        <_>
          <internalNodes>
            0 -1 67 -139198534 -1248077424 -2054302808 -1347422259
            -568665410 -1196441215 -153158162 184545231</internalNodes>
          <leafValues>
            -7.5860661268234253e-01 3.0574119091033936e-01</leafValues></_>
        <_>
          <internalNodes>
            0 -1 25 -67239976 -2140440 -1039093423 -705365551
            -1685074994 -4609601 -1925784226 -1913859315</internalNodes>
          <leafValues>
            -6.2735915184020996e-01 3.9953675866127014e-01</leafValues></_>
        <_>
          <internalNodes>
            0 -1 56 -1746927645 2136981791 1360369111 861655549
            -476384257 1061874067 1661071867 1602218751</internalNodes>
          <leafValues>
            -7.5872409343719482e-01 4.1653633117675781e-01</leafValues></_>
        <_>
          <internalNodes>
            0 -1 35 -611823368 -546618472 -1332248315 -635991155
            -1962368706 -1993727941 -477447785 -350035</internalNodes>
          <leafValues>
            -8.3737331628799438e-01 3.0153611302375793e-01</leafValues></_>
        <_>
          <internalNodes>
            0 -1 0 -889533874 1346552586 1124127250 168608256
            -1836978002 -535641214 -753147446 -81332242</internalNodes>
          <leafValues>
            -5.8246636390686035e-01 4.4799086451530457e-01</leafValues></_>
        <_>
          <internalNodes>
            0 -1 8 -1794909490 -576763755 93739743 -706883108
            -1669283398 1200277131 -1148653633 2013257711</internalNodes>
          <leafValues>
            -9.3214696645736694e-01 2.5415864586830139e-01</leafValues></_>
        <_>
          <internalNodes>
            0 -1 30 865082576 262664968 143659697 1201365900 1496199758
            193674011 2030793663 -33861</internalNodes>
          <leafValues>
            -7.0221662521362305e-01 3.4008562564849854e-01</leafValues></_></weakClassifiers></_>
    <!-- stage 8 -->
    <_>
      <maxWeakCount>7</maxWeakCount>
      <stageThreshold>-2.3303236961364746e+00</stageThreshold>
      <weakClassifiers>
        <_>
          <internalNodes>
            0 -1 26 -536879617 -174070323 -270536737 -35652097
            -811611665 -1886139649 -4198433 -4467201</internalNodes>
          <leafValues>
            -6.7653936147689819e-01 3.6997538805007935e-01</leafValues></_>
        <_>
          <internalNodes>
            0 -1 60 -136314881 -267394257 -780058093 -622071593
            -668272469 -200966142 -452464402 1194327023</internalNodes>
          <leafValues>
            -7.2711205482482910e-01 3.1346511840820312e-01</leafValues></_>
        <_>
          <internalNodes>
            0 -1 14 2131806460 -245530496 -871112961 -150536185
            2119761598 2134607496 -89470005 -72365109</internalNodes>
          <leafValues>
            -6.6598761081695557e-01 4.2044878005981445e-01</leafValues></_>
        <_>
          <internalNodes>
            0 -1 12 -2011160353 -1927274300 -850493249 -1891630833
            -73858561 -611742805 738818495 -442148401</internalNodes>
          <leafValues>
            -6.1840921640396118e-01 4.1563051939010620e-01</leafValues></_>
        <_>
          <internalNodes>
            0 -1 66 -556018469 -1659645093 25284999 232507147 -99689430
            -1155794797 -151061510 687078127</internalNodes>
          <leafValues>
            -6.0643899440765381e-01 4.1176050901412964e-01</leafValues></_>
        <_>
          <internalNodes>
            0 -1 9 -1048696 -907359671 1389363208 -795582462 -83867508
            1455588419 -678278962 -14754469</internalNodes>
          <leafValues>
            -5.6154340505599976e-01 4.8036155104637146e-01</leafValues></_>
        <_>
          <internalNodes>
            0 -1 62 -48627791 1067041721 -376384205 898618877 -930444581
            -91717463 -2013093701 970967173</internalNodes>
          <leafValues>
            -6.0263437032699585e-01 3.7446007132530212e-01</leafValues></_></weakClassifiers></_>
    <!-- stage 9 -->
    <_>
      <maxWeakCount>9</maxWeakCount>
      <stageThreshold>-1.8313884735107422e+00</stageThreshold>
      <weakClassifiers>
        <_>
          <internalNodes>
            0 -1 27 -73402369 -3017005 -739523841 1576912115 -1145310981
            -1081421366 -757073921 -1074005253</internalNodes>
          <leafValues>
            -6.6259455680847168e-01 3.5101532936096191e-01</leafValues></_>
        <_>
          <internalNodes>
            0 -1 61 -749734913 -201993773 -775303169 -547384867
            -1574393416 -1086455575 1334164447 1566917311</internalNodes>
          <leafValues>
            -6.7094063758850098e-01 3.7587797641754150e-01</leafValues></_>
        <_>
          <internalNodes>
            0 -1 23 -611591032 -619998710 1619006545 -704817915
            -73465974 -79984581 -633145873 -1646798719</internalNodes>
          <leafValues>
            -6.5518987178802490e-01 3.5861271619796753e-01</leafValues></_>
        <_>
          <internalNodes>
            0 -1 16 -575410206 -1364465146 1409289216 -924890493
            -753313352 2053943443 -99525683 -708085949</internalNodes>
          <leafValues>
            -6.0527980327606201e-01 4.0404602885246277e-01</leafValues></_>
        <_>
          <internalNodes>
            0 -1 21 1440012017 -177176336 -1055157673 -1276380373
            809040568 506153642 -1031813957 -88086101</internalNodes>
          <leafValues>
            -6.3258343935012817e-01 3.6476427316665649e-01</leafValues></_>
        <_>
          <internalNodes>
            0 -1 3 2072644632 1330208606 1084627986 462360913 991673167
            -550530919 176946335 -536870913</internalNodes>
          <leafValues>
            -6.0329604148864746e-01 3.6502528190612793e-01</leafValues></_>
        <_>
          <internalNodes>
            0 -1 42 -251608424 -170819491 -1877896779 -688655523
            -1124031558 -1197801077 -1624595481 259964925</internalNodes>
          <leafValues>
            -7.5384050607681274e-01 3.1988966464996338e-01</leafValues></_>
        <_>
          <internalNodes>
            0 -1 5 -1659846145 -276004374 738215936 -271068176 847974559
            1004470458 696289407 -537557257</internalNodes>
          <leafValues>
            -5.3230720758438110e-01 4.0691822767257690e-01</leafValues></_>
        <_>
          <internalNodes>
            0 -1 31 -1202373640 -336947736 -234642829 -1445714408
            -1081541106 -1962319741 -628556882 -602898423</internalNodes>
          <leafValues>
            -7.0880550146102905e-01 3.2228973507881165e-01</leafValues></_></weakClassifiers></_>
    <!-- stage 10 -->
    <_>
      <maxWeakCount>8</maxWeakCount>
      <stageThreshold>-1.7021578550338745e+00</stageThreshold>
      <weakClassifiers>
        <_>
          <internalNodes>
            0 -1 46 -35653122 -607416168 -754886145 1576866783 -74711302
            -1098215255 2072637435 1340067839</internalNodes>
          <leafValues>
            -8.2363015413284302e-01 7.7717661857604980e-02</leafValues></_>
        <_>
          <internalNodes>
            0 -1 24 -136053257 -67415563 -787251081 -1316523535
            -1193610241 -105757817 984284159 -1145308233</internalNodes>
          <leafValues>
            -5.9572887420654297e-01 3.7389227747917175e-01</leafValues></_>
        <_>
          <internalNodes>
            0 -1 2 -1373372542 -1945900414 151841 -1173635072
            -1590696821 411730115 -531674405 -392701945</internalNodes>
          <leafValues>
            -5.4931968450546265e-01 4.1683027148246765e-01</leafValues></_>
        <_>
          <internalNodes>
            0 -1 65 1595726608 1560674236 1477704721 -576851311
            -1563770130 -1433624446 -770147007 -1461083136</internalNodes>
          <leafValues>
            -6.0801541805267334e-01 3.7694174051284790e-01</leafValues></_>
        <_>
          <internalNodes>
            0 -1 1 1070562783 1623785760 -1064573139 -171215945
            1094023535 -894369784 1465905007 2002482943</internalNodes>
          <leafValues>
            -8.1174951791763306e-01 2.5760239362716675e-01</leafValues></_>
        <_>
          <internalNodes>
            0 -1 38 -1783603976 -457076568 269850233 802803732
            -1079444918 1502135296 440533035 1863020555</internalNodes>
          <leafValues>
            -8.1455034017562866e-01 2.3022492229938507e-01</leafValues></_>
        <_>
          <internalNodes>
            0 -1 52 487660561 868349600 -515432079 -1685111315 135809096
            2072740510 1485339957 -182235</internalNodes>
          <leafValues>
            -7.0521074533462524e-01 2.8318852186203003e-01</leafValues></_>
        <_>
          <internalNodes>
            0 -1 50 1180156179 -816099043 -738078241 1335579035
            -623166737 178782315 526121983 258939898</internalNodes>
          <leafValues>
            -6.8430417776107788e-01 2.6919722557067871e-01</leafValues></_></weakClassifiers></_></stages>
  <features>
    <_>
      <rect>
        0 0 2 16</rect></_>
    <_>
      <rect>
        0 0 25 13</rect></_>
    <_>
      <rect>
        0 1 5 10</rect></_>
    <_>
      <rect>
        0 1 27 5</rect></_>
    <_>
      <rect>
        0 3 27 10</rect></_>
    <_>
      <rect>
        0 8 11 4</rect></_>
    <_>
      <rect>
        0 10 20 12</rect></_>
    <_>
      <rect>
        0 12 8 12</rect></_>
    <_>
      <rect>
        0 15 27 5</rect></_>
    <_>
      <rect>
        0 17 4 8</rect></_>
    <_>
      <rect>
        0 20 7 9</rect></_>
    <_>
      <rect>
        0 32 27 5</rect></_>
    <_>
      <rect>
        1 3 15 4</rect></_>
    <_>
      <rect>
        1 5 27 11</rect></_>
    <_>
      <rect>
        1 26 18 7</rect></_>
    <_>
      <rect>
        2 0 22 6</rect></_>
    <_>
      <rect>
        2 8 6 10</rect></_>
    <_>
      <rect>
        2 8 16 11</rect></_>
    <_>
      <rect>
        2 9 26 10</rect></_>
    <_>
      <rect>
        2 10 4 8</rect></_>
    <_>
      <rect>
        2 11 10 9</rect></_>
    <_>
      <rect>
        2 15 26 11</rect></_>
    <_>
      <rect>
        3 16 26 10</rect></_>
    <_>
      <rect>
        7 32 21 5</rect></_>
    <_>
      <rect>
        10 12 18 12</rect></_>
    <_>
      <rect>
        10 33 24 5</rect></_>
    <_>
      <rect>
        13 0 17 12</rect></_>
    <_>
      <rect>
        13 12 23 12</rect></_>
    <_>
      <rect>
        17 11 17 12</rect></_>
    <_>
      <rect>
        18 0 15 12</rect></_>
    <_>
      <rect>
        20 0 14 5</rect></_>
    <_>
      <rect>
        21 31 13 3</rect></_>
    <_>
      <rect>
        22 0 12 11</rect></_>
    <_>
      <rect>
        22 15 13 11</rect></_>
    <_>
      <rect>
        24 0 13 12</rect></_>
    <_>
      <rect>
        26 6 11 5</rect></_>
    <_>
      <rect>
        27 0 13 6</rect></_>
    <_>
      <rect>
        27 28 11 5</rect></_>
    <_>
      <rect>
        27 29 9 3</rect></_>
    <_>
      <rect>
        27 33 10 5</rect></_>
    <_>
      <rect>
        28 9 6 3</rect></_>
    <_>
      <rect>
        28 32 9 3</rect></_>
    <_>
      <rect>
        29 12 9 3</rect></_>
    <_>
      <rect>
        31 5 6 5</rect></_>
    <_>
      <rect>
        31 7 17 12</rect></_>
    <_>
      <rect>
        31 8 7 3</rect></_>
    <_>
      <rect>
        31 23 2 1</rect></_>
    <_>
      <rect>
        33 4 7 6</rect></_>
    <_>
      <rect>
        33 29 6 5</rect></_>
    <_>
      <rect>
        35 19 2 2</rect></_>
    <_>
      <rect>
        36 19 4 1</rect></_>
    <_>
      <rect>
        37 8 15 9</rect></_>
    <_>
      <rect>
        38 3 8 4</rect></_>
    <_>
      <rect>
        38 23 1 2</rect></_>
    <_>
      <rect>
        38 23 3 1</rect></_>
    <_>
      <rect>
        40 19 1 2</rect></_>
    <_>
      <rect>
        40 20 2 1</rect></_>
    <_>
      <rect>
        40 23 1 1</rect></_>
    <_>
      <rect>
        40 25 2 1</rect></_>
    <_>
      <rect>
        41 21 1 2</rect></_>
    <_>
      <rect>
        41 22 1 3</rect></_>
    <_>
      <rect>
        42 22 6 1</rect></_>
    <_>
      <rect>
        43 27 13 5</rect></_>
    <_>
      <rect>
        45 21 3 1</rect></_>
    <_>
      <rect>
        46 23 2 1</rect></_>
    <_>
      <rect>
        46 30 12 6</rect></_>
    <_>
      <rect>
        55 8 9 8</rect></_>
    <_>
      <rect>
        55 15 9 8</rect></_></features></cascade>
</opencv_storage>
